"x"
"1" -0.001873190500821
"2" -0.00181509211788942
"3" -0.00189194436908979
"4" -0.00186230237165809
"5" -0.00184999893018498
"6" -0.00201933416185721
"7" -0.00202744446946483
"8" -0.0019364631010171
"9" -0.00191568830428009
"10" -0.00187738653263275
"11" -0.00179847411397056
"12" -0.00180820114101473
"13" -0.00179279104285684
"14" -0.00180024695210574
"15" -0.00178463155048362
"16" -0.00177986618233943
"17" -0.00177958619072452
"18" -0.00181578294620814
"19" -0.00182039855025941
"20" -0.00183038250551454
"21" -0.00181162640240207
"22" -0.00173611487887711
"23" -0.00170942028625763
"24" -0.00178799749627436
"25" -0.00176210009767119
"26" -0.00184020506591184
"27" -0.00187620017918269
"28" -0.00126203877867149
"29" -0.0008341129649464
"30" -0.000466214011486225
"31" -0.000465536041211729
"32" -0.000749646090147565
"33" -0.000834096597268224
"34" -0.000712311625422694
"35" -0.0006307635791725
"36" -0.000657726907229024
"37" -0.000627132242384985
"38" -0.000735613471362097
"39" -0.000744466613690857
"40" -0.000718596127371163
"41" -0.000667668986161477
"42" -0.000711877201136811
"43" -0.000583006555618101
"44" -0.000650279732888992
"45" -0.000657089306064692
"46" -0.000590844165000705
"47" -0.000561090457522372
"48" -0.000457991127915231
"49" -0.000323739123116793
"50" -0.000413430330162558
"51" -0.000323706070535004
"52" -0.000197873730310164
"53" -0.000188184983657947
"54" -0.000210453207747272
"55" -0.000163165277984462
"56" -0.000407607814045642
"57" -0.00031711270020264
"58" -0.000255564266421468
"59" -0.000276203913297004
"60" -0.00027568368335328
"61" -0.000254970254921519
"62" -0.000316120431934394
"63" -0.000320569229000534
"64" -0.000403050546753518
"65" -0.00025463339763477
"66" -0.000324958444889847
"67" -0.000215270950906987
"68" -0.000246605602770937
"69" -0.000397104336798254
"70" -0.000473453436716486
"71" -0.000504982483715857
"72" -0.000350864518126478
"73" -0.000451006172438247
"74" -0.000283235391169903
"75" -0.000440467653638017
"76" -0.000295236789904427
"77" -0.000343222643954019
"78" -0.000199241310897416
"79" -0.000204141099510822
"80" -0.000218736858245528
"81" -0.000197311505876657
"82" -0.00020921604061871
"83" -0.000140698978713301
"84" -0.000418266261972397
"85" -0.0004130180260929
"86" -0.000354514516722101
"87" 0.000124906042529786
"88" -8.06599231584353e-05
"89" -0.000185752322835725
"90" -0.000179285165003693
"91" -0.000476692932339531
"92" -0.000223534154722756
"93" -0.00010629289342121
"94" -0.000116720648326975
"95" 1.70309350737046e-05
"96" 0.000145998258854014
"97" 0.000157951314554332
"98" 4.68772539377462e-05
"99" -0.00019347918800959
"100" -0.000100010402371395
